-0.72
0.0595494
0.23106
0.450038
-0.383877
0.607427
-0.261609
0.102733
-0.273561
0.602612
0.753164
0.685049
0.51601
-1.74728
-0.598149
0.07
-0.689175
-0.432874
-0.393037
-0.497505
-0.29682
0.157096
-0.41304
0.826906
0.492473
0.257379
-0.0636948
0.213321
-0.648139
-0.394419
-0.03
-0.184625
0.206029
-0.735041
-0.0708852
-0.589749
0.79268
0.00398363
-0.490622
-0.811595
0.167134
0.143598
0.103271
-0.701157
0.56856
-0.5
-0.65793
0.777847
-0.0932857
0.818918
-0.343205
-0.132868
-0.328817
-0.0244463
0.0419207
-0.038489
-0.324465
-0.404489
-0.585396
0.789826
0.445
-0.414889
0.627457
0.582378
-0.33543
-0.0290622
0.084842
0.144419
-0.236889
0.00127667
-1.06641
-0.0474284
-0.517039
-1.03065
0.402332
0.005
0.335997
0.86814
0.37544
0.16837
-0.691345
0.355409
0.504696
0.248301
0.159597
0.69462
0.655474
-0.488253
-1.06359
0.406521
0.055
-0.23639
0.13759
-0.488026
0.257062
0.206721
-0.360189
0.321273
-0.349259
0.187033
0.302922
-0.80181
-0.436396
-0.686023
-0.323387
-0.51
-0.0902502
-0.702979
-0.351778
-0.29352
0.138309
-0.419742
0.812654
0.645854
-0.718441
-0.665602
0.22548
0.17005
-0.280184
0.0938215
-0.63
0.0486017
-0.331768
-0.148047
-0.254451
0.239217
0.0703743
0.108916
0.566515
-0.270885
0.0961826
0.235332
-0.408469
-0.327695
1.09864
0.07
0.377149
-0.330396
-0.679875
0.0792835
-0.328215
-0.58717
-0.00836338
0.228807
0.127216
0.264655
-0.5979
-0.712074
-0.992147
0.0778327
0.39
-0.147068
0.148919
-0.966118
-0.287493
-0.560272
0.0954775
-0.0793931
-0.157713
-0.713198
-0.42188
0.387936
0.221243
-0.123234
0.351999
-0.3
0.172134
-0.376332
-0.390707
-0.218141
-0.588187
-0.191914
-0.666591
-0.423863
-0.054412
-0.236118
-0.635877
-0.0763318
0.669446
0.348926
0.745
-0.112697
-0.139697
0.0679537
0.795461
0.571449
-0.856426
-0.4731
0.138267
0.81562
0.384645
0.277844
0.564916
-0.376049
0.300065
-0.125
0.270033
-0.655866
0.00518697
-0.0221438
-0.127662
0.171959
0.554043
-0.0303063
0.151855
-0.361659
-0.250113
0.593007
-0.166904
0.157144
-0.545
0.0230834
-0.361224
0.0175873
0.429925
-0.138089
0.916181
-0.234658
-0.142383
0.496029
-0.978489
0.112155
-0.422399
0.562536
0.933868
-0.12
-0.212065
-0.0783715
-0.686745
0.34922
-0.622893
-0.37365
-0.476764
-0.271713
0.706747
0.475803
-0.17063
0.0792925
0.0452401
0.0981727
0.075
-0.487365
0.341545
-0.54804
0.220149
0.0985131
-0.0281369
0.16978
0.000546057
0.29447
0.387116
-0.130718
-0.204437
-0.24718
-0.415033
-0.015
-0.55637
-0.591573
0.892317
-0.39388
0.368819
0.0280509
-0.130012
0.35271
-0.800346
-0.489911
0.291013
0.392916
0.940146
-0.0259556
0.29
-0.149218
0.808351
0.145278
0.485349
0.17223
0.370041
-0.331784
0.0398642
0.158572
0.432866
-0.306992
0.522305
-0.828482
0.208861
0.66
-0.157684
-0.131461
0.127161
0.24302
-0.416653
0.417627
-0.664234
-0.205002
-0.431823
0.307199
0.622815
-0.0351911
1.04755
0.26442
0.225
0.71877
0.50041
0.378706
-0.165672
-0.811747
0.657893
-0.0186868
-0.328274
0.486642
-0.481436
-0.88234
1.30482
0.106209
0.0526724
0.5
-0.980632
-0.319417
0.415548
0.0451609
0.863796
0.501168
-0.113152
-0.341848
0.190024
0.648732
0.113178
1.53426
0.125123
-0.00331799
-0.38
0.523406
-0.27352
0.499504
-0.962186
0.302631
0.224269
-0.498139
-0.332635
-0.161825
-0.763359
-0.154039
1.35343
-0.226922
0.65996
-0.455
0.0589208
-0.509536
0.556654
-0.69193
-0.107948
0.0844099
0.436405
0.650477
-0.281912
0.106287
-0.48401
1.45923
0.335446
-0.171174
-0.185
0.211071
0.0753891
0.180726
-0.0808455
-0.318375
0.228336
0.462142
0.123786
-0.165368
-0.316617
-0.0797308
0.975701
-0.420906
0.0300989
-0.375
0.229243
-0.704099
0.0635751
0.387363
-1.14022
0.246721
0.358149
0.0528061
-0.167989
0.0493431
0.0612317
1.11043
-0.00805456
0.574351
-0.24
-0.668848
0.635677
0.432513
0.166102
0.22
0.161146
-0.0229419
0.227144
-0.000406382
-0.478134
-0.535891
1.06074
-0.0742463
0.4821
0.305
0.102535
-0.775806
0.757252
0.180975
0.28192
-0.146364
0.702876
0.823125
-0.216708
0.140496
0.830297
0.552852
0.696388
-0.218019
-0.815
0.495994
0.508723
0.961229
-0.0336572
0.198181
0.670334
0.202895
0.211754
-0.153958
-0.742148
-0.124457
0.624719
-0.105835
-0.249972
-0.705
0.871954
0.402411
-0.0648817
0.148949
-0.953209
0.0933606
0.370124
0.338388
0.0364224
0.606314
0.13299
0.020188
1.23428
1.28091
0.4
-0.203684
-0.401707
-0.169549
-0.338801
0.29076
0.811584
0.322882
0.24081
-0.246906
0.194636
0.159475
-0.834286
0.709792
0.268167
-0.885
-0.0968252
-0.226396
0.237436
-0.794575
-0.100492
0.159583
-0.588767
0.200449
-0.0459025
0.325234
0.153411
-0.697225
-0.609554
0.0597849
0.39
0.468765
-0.120136
0.11284
0.649537
0.467868
0.849635
0.141478
-0.211948
-0.46302
-0.00668821
0.223857
-0.479021
0.545441
0.465052
0.045
-0.755799
-0.167981
-0.341401
0.876552
0.664384
0.519903
-0.00512471
-0.602419
-0.4191
0.494159
0.584247
-0.0785484
-0.0130958
-0.842399
-0.145
0.261985
0.365543
-0.409713
-0.662247
0.279511
-0.190278
0.956624
-0.367982
-0.151403
-0.254546
-0.0597594
0.30323
0.101924
0.0394682
0.125
0.292243
-0.694835
-0.371839
0.230128
-0.621392
0.271613
0.142169
0.0740005
-0.674895
-0.310834
-0.02161
0.22349
-0.496942
0.115155
0.265
0.265715
0.138973
-0.215654
0.204674
-0.311469
-0.271014
-0.385234
0.501691
0.523788
0.272464
0.0112754
0.474671
-0.277937
0.657621
-0.125
-0.201803
-0.317052
-0.528553
-0.0844208
0.186012
0.334026
0.598727
-0.222763
0.619294
0.255569
0.521774
0.737214
0.675351
0.208598
0.565
-0.682739
-0.0779823
0.262574
0.765881
-0.62394
-0.586074
0.0707324
1.05661
0.00861664
-0.739668
0.703756
-0.401808
-0.473198
0.122333
-0.14
0.755284
0.808853
0.501397
-0.848154
-0.0931041
-0.958276
-0.291756
-0.190019
0.2173
0.664461
-0.17692
-0.67046
0.686326
0.597481
0.62
0.282586
0.271535
-0.268342
0.491967
-0.106882
0.159995
-0.322393
-0.248114
0.409738
-0.335914
-0.0710058
0.102579
1.0154
-0.557012
0.005
-0.00114648
-0.0852157
-0.0780738
-0.238321
-0.321089
-0.409877
0.602758
-0.519359
-0.0620242
-0.0383045
0.11992
0.0130171
-0.396924
0.668591
-0.1
-0.38488
-0.535101
0.275534
-0.0183766
0.200964
0.692874
0.485995
-0.649156
-0.0912991
0.915162
0.338417
0.189374
0.202952
0.513973
0.3
-0.526301
-0.22964
-0.0665173
-0.0317392
-0.318339
-0.188881
0.663746
-0.555293
-0.0238241
0.735882
-0.266155
-0.379761
-0.238862
0.794008
-0.405
-0.717077
-0.742195
0.0187505
-0.39154
-0.0820686
0.213146
-0.0153615
0.060327
0.304131
-0.607287
0.20279
-0.56586
0.214276
-0.266092
-0.32
-0.22352
-0.274753
-0.0827786
0.183236
-0.684287
-0.129591
-0.526259
-0.808388
0.158457
-0.0684732
0.381331
-0.388428
-0.142998
-0.142683
0.45
0.253096
-0.0470085
-0.051404
-0.622829
0.115579
0.0597008
-0.169667
-0.5916
0.63226
-0.528611
-0.996475
0.178145
-0.342857
-0.0840924
-0.08
-0.311125
-0.240871
-0.279062
0.371836
0.280415
0.694565
0.170252
0.812431
-0.551827
-0.522971
0.828281
-0.192543
-0.527018
-0.127598
-0.06
-0.0644283
-0.155542
0.00429912
0.0243713
0.25075
-0.734162
0.468723
0.0267934
-0.503033
-0.0946512
0.332518
-0.265442
0.0832527
0.366649
-0.28
0.200634
0.522857
-0.415805
0.39797
0.495029
-0.0262123
-0.749334
-0.610225
-0.0216013
0.592597
-0.358345
-0.106502
0.788023
0.435514
-0.095
0.0669472
-0.236372
0.364689
-0.740793
-0.693771
0.0317716
0.688281
0.0821403
-0.927326
-0.0431777
-0.219717
-0.193768
-1.26889
0.868936
0.15
-0.0309818
-0.426062
0.357313
0.107506
-0.595318
0.438944
0.6084
0.190359
-0.748424
-0.571603
-0.594694
-0.0615705
-0.750743
0.386008
0.115
-0.509523
-0.266343
0.580415
-0.496851
0.0426716
-0.543749
-0.331675
-0.174144
0.485979
-0.170712
-0.184832
-0.703803
-1.32313
0.418583
0.49
0.246209
0.511259
-0.189749
0.475437
-0.045192
-0.189901
0.322648
0.536575
-0.447695
-0.133024
-0.321207
-0.555608
-1.43187
0.657711
-0.74
-0.0396577
0.268516
0.277642
0.218524
0.0357184
-0.3938
0.325345
-0.387763
-0.658394
-0.425083
0.366074
-0.0445353
-0.16859
-0.165376
-0.46
-0.638682
-0.465609
0.753578
0.744435
-0.426205
0.677695
-0.00618701
-0.777615
-0.371416
0.124826
-0.0343622
-0.0179188
-0.74666
0.0668006
0.095
-0.180444
0.125585
1.03174
-0.3654
0.151618
-0.243473
0.753226
0.735751
-0.0415547
-0.0870397
-0.305545
-0.0492175
-0.502017
-0.359612
0.565
-0.650135
-0.424785
0.515161
0.387258
0.589725
0.102447
-0.505544
0.564251
0.388957
0.621964
0.432906
0.586008
-0.560416
-0.0634861
0.08
0.223368
-0.230936
0.169577
-0.829095
0.238312
0.633574
-0.430916
0.0132915
-0.374786
-0.0810052
0.0308464
0.303152
-0.163506
-0.486721
-0.23
0.389245
-0.0967885
0.758711
-0.413684
-0.225452
-0.375949
0.146366
0.454484
-0.14936
-0.412995
0.170792
-1.39964
-0.56804
0.959793
0.145
0.271812
-0.335587
0.814434
0.495081
0.719927
-0.517755
0.0996561
0.377449
0.298969
-0.0125945
0.496214
-0.267826
0.0890582
-1.44721
0.31
0.189423
-0.0695274
0.683046
0.947761
0.166462
0.389797
0.540154
-0.682759
-0.268868
-0.312708
0.339778
-0.336664
0.199243
-0.624251
0.17
0.418971
0.0143739
0.721043
0.26938
-0.0764695
0.210374
-0.352825
-0.150288
0.192064
0.502041
-0.587927
-0.551719
-0.223774
-0.306271
0.06
0.316608
-0.988443
0.804994
-0.922503
-0.526043
0.600296
0.744307
0.083389
-0.153571
-0.673772
0.159377
-0.340742
-0.19054
-1.66966
0.01
0.0280131
0.556676
0.992884
-0.0312139
-0.68399
-0.00139351
-0.474745
0.210677
0.176363
0.150171
-0.390366
-0.469249
0.219236
-1.78216
-0.055
-0.012573
-0.440934
-0.0177341
0.237756
-1.27903
0.936264
0.0569544
0.306609
-0.216324
0.224603
-0.177613
0.0803669
0.128107
-1.73694
-0.76
0.326988
0.303623
0.404464
0.0220306
0.0262645
0.702792
0.398887
-0.630446
-0.466954
-0.737378
-0.751736
0.210102
-0.0199182
-1.35967
-0.195
-0.120554
-0.345183
1.08206
0.192916
0.357965
-0.0757642
0.782648
0.774032
0.271327
0.317628
-0.296859
-0.842225
1.20915
-1.63543
0.905
-0.210583
0.163441
0.26233
0.287173
-0.0110089
0.393482
-0.348334
0.844189
0.688989
-0.734164
-0.444547
0.136087
0.460694
-1.95646
-0.13
-0.121299
-0.39186
0.851268
-0.574938
-0.330181
-0.541215
0.178092
0.4988
0.113913
-0.28855
0.551007
-0.113505
0.150821
-0.372914
0.305
-0.169153
0.299186
0.0280074
-0.237744
0.962871
0.601086
0.143131
-0.449196
0.167889
-0.0165307
-0.618529
0.190852
0.0545192
0.656209
-0.64
0.397085
-0.727718
-0.360257
0.317653
1.38059
0.164371
0.51203
0.0645146
0.224797
0.366563
0.198127
0.240534
0.248651
-0.369124
0.815
0.618972
0.034586
-0.0358942
-0.989527
1.38033
0.435167
-0.0710313
0.391402
-0.223849
-0.17523
0.748184
1.41405
-0.388316
1.0795
-0.85
-0.588071
-0.15214
-0.1337
0.0492343
1.09834
0.455372
0.873018
0.753582
-0.112003
-0.00425079
0.0870513
0.792756
0.826714
-0.638709
-0.365
0.334636
-0.0288803
-0.442824
0.201176
1.07883
0.483707
0.83391
0.77782
-0.146926
-0.80389
-0.710174
1.36469
0.0256217
0.105686
-0.57
-0.377331
-0.762061
-0.0549004
0.0497219
0.0921348
-0.127087
-0.628722
0.520144
-0.236683
-0.986721
-0.570014
1.13765
-0.841846
0.243687
0.075
-0.364857
-0.552981
0.378652
-0.259896
0.452069
-0.377766
-0.417745
-0.599462
-0.441986
-0.373166
-0.769331
0.420572
0.888164
0.0917002
-0.42
-0.369212
0.22487
-0.25759
-0.148656
0.551976
0.0828088
0.0571476
0.321943
-0.393763
-0.0816205
0.498902
0.978747
0.840324
0.0226813
0.35
0.210464
0.0404982
-0.745287
-0.502101
0.692756
0.730131
-0.459735
0.204346
0.511599
0.10868
0.560819
0.850277
-0.262559
0.656929
0.125
0.434967
0.0548078
-0.175237
-0.134887
0.918078
-0.300678
0.391739
-0.198509
-0.268669
0.570775
-0.53095
0.478727
0.760545
0.928372
-0.41
-0.0207192
0.413277
0.334343
0.0565054
-0.0554646
-0.344302
0.0130481
0.470088
-0.255827
-0.0072939
-0.0531075
-0.557308
-0.288776
-0.89757
0.265
-0.261281
-0.118152
0.849458
0.219044
-0.660063
-0.17406
-0.580529
0.0824701
-0.215803
-0.332342
0.127573
-0.171491
0.284
-1.70743
-0.13
-0.730172
-0.614205
0.534311
-0.168665
0.0558908
0.68574
-0.978474
-0.189983
-0.693079
0.254353
-0.259994
-0.117954
0.591883
0.145806
-0.55
-0.234873
-0.367528
0.88287
0.0862959
0.446573
0.51116
-0.974507
0.17661
-0.050811
-0.636215
-0.573361
0.16432
0.0629606
-0.886756
0.31
-0.0835811
0.245116
0.443086
-0.220825
0.293989
-0.501282
0.186756
-0.274354
-0.77476
-0.567173
-0.0296296
0.0752918
-0.722069
-1.43697
0.815
-0.678293
-0.133987
0.660212
0.264399
-0.858945
-0.545726
-0.809252
-0.132793
0.0993351
0.507506
-0.122991
-0.708184
0.838968
-1.83137
-0.145
-0.120475
-0.339898
0.227982
-0.0797927
-0.0645102
0.90974
-0.0579227
0.365305
-0.719726
-0.790709
-0.0886802
-0.152774
0.123965
-0.654853
-0.455
0.4467
-1.00362
0.893529
0.409713
-0.0238079
0.213635
-0.289772
1.19392
-0.582569
-0.235123
-0.563615
0.126504
0.844487
-1.21953
0.205
-0.652156
0.0506924
1.05771
0.0974779
-0.483877
0.523714
0.23588
1.01064
0.934986
-0.0768054
-0.186657
-0.353209
0.624052
-1.60555
-0.45
0.103163
0.274419
1.23133
0.317176
-0.993689
-0.564892
-0.390788
-0.505478
-0.217477
-0.261189
0.0186375
-1.32471
0.246791
0.345323
-0.09
0.0558208
-0.603878
0.0677611
0.739448
0.138389
0.560608
0.457289
0.133319
-0.559769
0.323487
0.250705
1.05944
0.220707
-0.290882
-0.04
0.106526
-0.462181
-0.150435
-0.335442
0.376253
0.695849
0.252842
0.767736
-0.0383984
0.284111
0.0276598
0.898399
-0.197608
0.0827301
-0.34
0.106069
-0.349927
0.157554
-0.123218
-0.399821
0.287965
0.363171
-0.0720222
0.553746
0.453788
0.670269
0.997928
-0.627463
1.09185
-0.465
-0.913967
0.225409
-0.153675
0.323031
-0.12779
-0.330989
-0.370205
-0.678747
0.681736
0.631489
1.05264
0.509692
0.457781
0.0311892
0.165
-0.857658
0.203523
-0.335994
0.360132
0.221838
-0.44169
0.217454
-0.124092
0.400568
-0.978094
0.0351075
1.00666
0.0320075
0.341744
0.015
-0.54296
0.620733
-0.0856943
-0.294112
-0.460629
-0.482844
0.12038
0.164367
-0.862178
0.0234961
0.926942
0.880364
0.729528
0.294438
0.055
0.0687481
0.124191
-0.35026
-0.147262
-0.0641571
-0.295191
0.486683
-0.304269
0.694459
-0.775492
0.623645
0.303189
-0.367156
0.0713314
0.25
-0.575189
-0.420969
-0.0644163
0.176765
-0.134902
-0.0515857
0.708066
0.399394
-0.0125126
-0.717309
-0.408231
0.756942
0.639943
-0.389255
0.175
-0.215024
-0.302973
-0.305277
0.00290889
0.39796
0.377485
0.152476
1.11006
0.00292008
-0.0235639
0.922317
0.934743
0.306297
-0.193393
0.09
0.0958952
-0.60014
-0.0438655
-0.631897
-1.03153
-0.200014
0.0446705
-0.412012
-0.220611
-0.445575
0.720797
-0.00140783
0.379741
1.23274
-0.72
-0.081854
-0.0858162
0.0202658
-0.45224
0.527676
-0.128696
0.169893
-0.197717
0.390024
0.434691
0.38186
0.267041
-0.862754
-0.337335
0.07
-0.649796
-0.831468
-0.45874
-0.728032
-0.608257
0.428881
-0.464368
1.32946
0.743253
-0.136865
-0.256292
0.0685956
0.115265
-0.252324
-0.03
-0.129977
0.241236
-0.828317
0.0667046
-0.806929
0.599318
-0.0955608
-0.208933
-0.863807
0.129063
0.110056
-0.185334
0.0550098
-0.216263
-0.5
-0.885318
1.40542
-0.056239
1.18911
-0.900229
-0.919092
-0.576251
0.367686
-0.142432
0.502427
0.341576
-0.534848
0.0897982
-0.27045
0.445
-0.305716
0.312437
0.702696
-0.460284
0.538695
0.482767
-0.00281827
-0.427491
-0.120043
-0.878134
-0.0956285
-0.441057
-0.366769
0.0444047
0.005
0.178492
1.99468
0.296251
0.658966
-0.468156
-1.02155
0.235322
0.0896672
-0.441166
1.54618
1.57113
-0.663715
-0.600572
-0.716817
0.055
0.041585
-0.073599
-0.444777
0.273687
1.44009
-0.085381
0.3059
-1.19494
-0.11524
0.168061
-0.633898
0.0172656
-0.0390937
-0.777576
-0.51
-0.00455168
-0.914353
-0.523451
-0.471989
0.263905
0.0128397
0.576957
0.0124259
-0.890371
-0.864425
-0.0383654
-0.00131694
-0.0135955
-0.143523
-0.63
0.245498
-1.17343
-0.0776096
-0.691674
0.849208
1.19944
0.12617
0.00533068
-0.200333
-0.527867
-0.150935
-0.451099
0.602819
1.2066
0.07
0.241202
-0.743191
-0.624748
-0.171173
0.276304
-0.0458284
-0.170341
-0.00563755
0.098158
-0.229985
-1.01001
-0.330063
-0.810195
-0.588588
0.39
-0.268084
0.478327
-0.869342
-0.129801
-1.18365
-0.436115
-0.216769
0.156015
-0.746925
0.160286
0.876279
-0.173512
-0.597815
-0.282528
-0.3
-0.0716102
0.630283
-0.332946
0.153211
-1.42695
-1.01025
-0.74621
-0.215936
-0.422193
0.642867
-0.10918
-0.54146
0.416531
-0.341971
0.745
-0.469629
1.87955
0.0587735
1.93174
-0.341375
-2.81133
-0.709633
0.181229
-0.0700464
1.87373
1.34876
0.110637
-0.732076
-1.58291
-0.125
0.471883
-2.0349
0.0822305
-0.811932
0.253463
2.24275
0.665021
0.155573
0.661876
-1.49896
-1.20124
0.759577
0.0285533
1.1738
-0.545
0.506065
-2.6356
0.144068
-0.845563
1.06556
3.52405
-0.0981854
-0.294856
1.12064
-2.53533
-1.50066
-0.247378
0.929263
2.38728
-1.16135
0.793059
0.359229
-1.02669
-1.36173
4.7584
0.352096
-0.154973
0.333085
2.60066
2.23298
-2.03922
1.28517
-5.85701
0.305792
-0.794953
-1.7724
0.324187
-0.738503
-1.34701
-0.93093
3.71273
-0.237403
2.94091
0.243878
-0.597015
-0.168441
-1.07964
-0.497207
-3.41976
